{
  "object_classifier_type": "CompositeClassifier",
  "classifiers": [
    {
      "object_classifier_type": "OpenCVMLClassifier",
      "featureExtractor": {
        "feature_extractor_type": "NormalizedFeatureExtractor",
        "featureExtractor": {
          "feature_extractor_type": "DefaultFeatureExtractor",
          "measurements": [
            "Nucleus: Area",
            "Nucleus: Eccentricity",
            "Nucleus: Hematoxylin OD mean",
            "Nucleus: Hematoxylin OD sum",
            "Nucleus: Hematoxylin OD std dev",
            "Nucleus: Hematoxylin OD max",
            "Nucleus: Hematoxylin OD min",
            "Nucleus: Hematoxylin OD range"
          ]
        },
        "normalizer": {
          "offsets": [
            0.0,
            0.0,
            0.0,
            0.0,
            0.0,
            0.0,
            0.0,
            0.0
          ],
          "scales": [
            1.0,
            1.0,
            1.0,
            1.0,
            1.0,
            1.0,
            1.0,
            1.0
          ],
          "missingValue": 0.0
        }
      },
      "classifier": {
        "class": "ANN_MLP",
        "statmodel": {
          "opencv_ml_ann_mlp": {
            "format": 3,
            "layer_sizes": [
              8,
              2
            ],
            "activation_function": "SIGMOID_SYM",
            "f_param1": 1.0,
            "f_param2": 1.0,
            "min_val": -9.4999999999999996e-01,
            "max_val": 9.4999999999999996e-01,
            "min_val1": -9.7999999999999998e-01,
            "max_val1": 9.7999999999999998e-01,
            "training_params": {
              "train_method": "RPROP",
              "dw0": 1.0000000000000001e-01,
              "dw_plus": 1.2000000000000000e+00,
              "dw_minus": 5.0000000000000000e-01,
              "dw_min": 1.1920928955078125e-07,
              "dw_max": 50.0,
              "term_criteria": {
                "epsilon": 1.0000000000000000e-02,
                "iterations": 1000
              }
            },
            "input_scale": [
              3.8334698981021466e-02,
              -1.4079289443938792e+00,
              6.5526598554267261e+00,
              -4.1022719089351130e+00,
              4.5489198575194107e+00,
              -2.4668681776434740e+00,
              3.2878320877272819e-02,
              -2.1753073417600119e+00,
              1.6694829983039966e+01,
              -2.3975920373616297e+00,
              3.3063215906375296e+00,
              -3.1115148274148305e+00,
              8.3312495823522994e+00,
              -2.1120320257883467e+00,
              4.2012637191020259e+00,
              -2.8886766789095137e+00
            ],
            "output_scale": [
              1.0,
              0.0,
              1.0,
              0.0
            ],
            "inv_output_scale": [
              1.0,
              0.0,
              1.0,
              0.0
            ],
            "weights": [
              [
                -2.1364686539240947e+00,
                2.3687051387558169e+00,
                -2.1506447337073084e-01,
                3.3294667919660070e-01,
                7.1997691517228291e-01,
                -4.5223563297318609e-01,
                -1.2902584691121728e+00,
                9.6429141695457732e-01,
                3.5671721845598159e-01,
                -1.1639852323283018e+00,
                5.7869861175058190e-01,
                -6.2516769831879848e-01,
                1.1717680051018127e+00,
                -8.3127024730774401e-01,
                6.9390807256439724e-01,
                -4.9184672022431675e-01,
                -3.0289370658860554e-01,
                -9.2056682745516039e-02
              ]
            ]
          }
        }
      },
      "pathClasses": [
        {
          "name": "High_HematoX",
          "color": [
            91,
            156,
            48
          ]
        },
        {
          "name": "Tumor_cells",
          "color": [
            247,
            131,
            230
          ]
        }
      ],
      "requestProbabilityEstimate": false,
      "filter": "DETECTIONS_ALL",
      "timestamp": 1731576232676
    },
    {
      "object_classifier_type": "SimpleClassifier",
      "function": {
        "classifier_fun": "ClassifyByMeasurementFunction",
        "measurement": "Nucleus: Eccentricity",
        "pathClassBelow": {
          "name": "Tumor_cells",
          "color": [
            247,
            131,
            230
          ]
        },
        "pathClassEquals": {
          "name": "Not_TC_eccentricity",
          "color": [
            243,
            153,
            18
          ]
        },
        "pathClassAbove": {
          "name": "Not_TC_eccentricity",
          "color": [
            243,
            153,
            18
          ]
        },
        "threshold": 0.9229
      },
      "pathClasses": [
        {
          "name": "Tumor_cells",
          "color": [
            247,
            131,
            230
          ]
        },
        {
          "name": "Not_TC_eccentricity",
          "color": [
            243,
            153,
            18
          ]
        }
      ],
      "filter": "DETECTIONS_ALL",
      "timestamp": 1727958204422
    },
    {
      "object_classifier_type": "SimpleClassifier",
      "function": {
        "classifier_fun": "ClassifyByMeasurementFunction",
        "measurement": "Nucleus: Area",
        "pathClassBelow": {
          "name": "Not_TC_size",
          "color": [
            26,
            51,
            153
          ]
        },
        "pathClassEquals": {
          "name": "Tumor_cells",
          "color": [
            247,
            131,
            230
          ]
        },
        "pathClassAbove": {
          "name": "Tumor_cells",
          "color": [
            247,
            131,
            230
          ]
        },
        "threshold": 14.0
      },
      "pathClasses": [
        {
          "name": "Not_TC_size",
          "color": [
            26,
            51,
            153
          ]
        },
        {
          "name": "Tumor_cells",
          "color": [
            247,
            131,
            230
          ]
        }
      ],
      "filter": "DETECTIONS_ALL",
      "timestamp": 1727958869230
    }
  ]
}